 4096 19696 23072 26736 26400 0 6200 10664 51096 54808 17448 19032 14248 15640 18888 16632 22248 14712 22248 21624 0 0 -5 5 7 -2 -3 258 -929 -378 -204 -194 475 182 129 -265 -241 -511 -406 421 344 370 -433 -555 -535 613 199 -388 -686 -412 -693 -996 717 426 5 89 135 -373 110 -39 -152 -44 -518 391 86 33 19 -905 -767 -91 376 -317 -354 -343 38 -9 -179 -937 -462 -157 245 -292 -315 7 466 110 -259 -479 136 285 727 -124 -330 -328 -326 309 199 428 287 534 574 -98 73 -332 -283 219 -196 484 -536 -119 -175 -22 -369 111 -187 193 -3 130 136 -100 -117 -22 -308 229 -418 -415 -403 129 268 308 60 -216 -238 -82 -333 4 34 -342 -259 79 302 225 -774 -133 451 84 -556 2 3 -79 259 411 300 -202 -469 -25 -18 108 -497 -586 -130 -207 90 -116 -328 -399 25 -63 -91 -164 -37 705 -7 6 241 -140 20 -7 -5 -1 -4 89 1 -1 -1 1 -3 -5 -2 7 1 -4 1 1 7 -3 4 7 909 -357 -107 -611 -3 -6 337 -174 1 3 4 3 1 7 6 -5 -5 -3 5 -6 -1 3 -6 -7 -643 173 -218 116 -402 385 500 126 -103 308 111 -780 -263 -52 -38 -344 865 286 -229 1 219 313 5 1 -1 190 -98 139 70 -369 -167 -324 -120 91 -197 -114 -843 69 444 122 297 -68 -244 -219 -44 46 94 226 263 -6 -5 -1 21 3 205 3 -5 356 438 -593 -5 1 337 -673 -193 -1057 -343 -7 -570 133 -37 286 236 -182 -39 206 -121 258 -23 -13 -849 -361 -7 -36 -571 238 105 269 -138 299 -34 -70 295 -127 -375 4 3 15 513 -810 -1 2 -4 246 -354 -5 6 -232 -188 -83 17 287 -3 -268 -346 60 317 520 189 31 -214 -123 45 458 -43 -392 -154 -1 -399 -260 -134 -403 -145 -489 -100 137 462 -23 334 -429 310 174 1 188 216 -28 -111 41 286 -121 -153 -19 35 -156 -187 116 -108 7 -89 36 244 -173 -38 -63 -134 26 -345 -62 -146 -45 -3 0 1 -298 -431 6 2 209 -395 145 4 -5 -406 952 -362 -313 -122 2 -397 -328 85 -2 -135 -45 557 -258 164 -77 -326 5 -287 -420 4 59 360 -26 -62 -284 -201 -31 -120 -216 -153 415 355 86 -365 1 -283 -166 72 241 94 293 -152 51 108 -168 -446 513 -43 -587 -3 366 162 -103 -414 -5 -411 362 436 -353 -10 184 454 -77 -671 3 319 -99 -29 361 21 -14 135 200 223 -291 -827 -156 -82 -71 -7 116 173 -15 -141 -120 -281 118 22 78 -252 260 -143 -2 -3 97 53 -42 5 -1 -518 408 -67 -3 2 -151 -339 203 138 -329 4 -383 -156 53 209 298 -60 76 -187 385 183 -182 182 -299 -231 -1 -521 -99 -136 -93 78 51 287 66 -244 73 -559 55 -60 252 -2 -267 -374 95 195 -90 86 249 -90 -94 65 -22 292 -145 -76 1 -52 -646 -70 -54 1 107 -221 65 105 114 -146 -168 413 209 -3 26 242 100 -98 429 122 6 -472 -207 -58 47 -5 119 73 -2 490 -241 20 202 417 -44 -449 -266 -18 66 -61 62 266 -318 0 153 -126 -233 109 103 -33 -440 -228 -102 251 584 45 202 179 -6 125 -82 198 -116 -215 -327 -67 -214 -35 -57 -53 -214 2 1 71 42 210 5 6 -281 -88 99 3 -6 -429 29 8 18 618 3 179 313 -115 -318 -243 -139 -245 -168 -133 -353 -650 -273 168 -692 0 120 -2 -169 43 -107 98 251 -234 -217 -255 -248 -42 -45 3 2 -101 472 -302 38 114 -231 -100 74 149 -142 -142 -187 -291 -596 6 87 296 -242 -393 116 -571 743 30 10 311 -414 551 -97 74 -1 -187 124 -26 649 149 -232 -383 651 287 -125 -142 -461 73 839 7 216 342 -28 -382 -59 -469 151 -609 59 -39 22 -638 475 -14 -4 -83 222 -147 131 50 -406 -533 -431 -179 11 -405 -406 10 -316 7 -201 44 152 -14 40 -143 146 146 -7 -488 -71 19 90 -59 -7 -278 -263 5 287 237 -114 -285 -332 41 274 -116 -291 145 -479 7 10 -132 -36 -395 -97 166 -447 -214 -228 41 203 199 3 -5 4 6 6 6 -5 -7 4 1 2 2 6 1 7 -5 5 0 5 -5 -5 7 7 -6 5 4 6 -2 -3 -4 -1 -3 -2 2 -2 4 3 -6 -6 -6 2 5 -6 -2 6 -3 2 2 -2 -80 -3 6 -1 418 109 -2 -5 -2 -364 425 -3 -3 -6 -4 150 2 -2 5 -412 -199 -6 -4 -382 -590 -52 -1 3 2 2 4 -1 -7 707 -6 284 1 -1 7 -615 -4 3 -5 -6 0 -6 -2 -2 353 1 4 -5 -4 30 119 58 6 -2 -7 -2 25 -4 2 884 7 1 -3 -1 -7 -4 361 -5 5 1 -2 -354 0 5 2 2 -1 -7 7 577 7 40 -2 -6 1 -3 402 4 1 -13 514 -506 -4 0 0 294 0 -1 -5 -7 2 2 2 -6 -1 -139 314 2 4 100 -180 -214 2 3 6 -37 -91 4 5 2 501 58 -4 -7 3 2 7 -3 3 -2 -6 6 6 5 7 -446 -3 4 5 726 322 296 0 -3 26 2 -4 5 -7 -2 5 5 1 -5 1 -2 -3 1 -7 5 -1 -4 -6 -6 2 -5 276 5 5 2 0 63 0 2 0 2 -5 -6 7 -2 1109 2 -1 6 -1 -474 0 -6 -5 1 0 3 -2 -3 2 7 -5 -3 -3 -5 6 -7 1 -7 -3 4 630 -6 1 -2 -4 838 7 6 5 6 -4 5 7 7 -4 -1 0 1 -4 1 273 0 -3 -3 5 -7 -1 1 -1 -1 2 -3 -3 95 -1 5 -2 7 1 -487 -2 -4 -3 7 -3 7 -2 0 -3 7 6 3 5 -6 0 3 -7 -5 -7 -7 -5 1 3 -7 -805 7 4 0 -4 0 -2 -3 1 -3 -2 7 -6 2 -7 -3 -201 -2 4 -2 -7 2 -2 1 -1 -5 173 -1 0 3 -340 -825 -6 -3 -3 7 -305 -3 5 1 -1 -298 -4 6 -1 -276 -4 6 -3 3 2 4 -1 2 -7 -1 6 -3 1 781 1 2 1 -4 102 332 -3 -2 1 -4 5 -1 1 6 -7 3 7 7 0 0 -1 3 2 -6 1 4 7 -6 4 -3 -1 7 7 -2 6 7 -2 -4 1 11 4 -3 7 3 3 3 -1 1 1 1 4 1 -3 -1 5 -3 325 -5 -147 -425 4 186 5 -2 -41 155 -312 -278 -1 6 -274 471 233 119 -7 283 91 2 389 -241 81 -570 -1 625 -2 258 22 -306 -769 410 -110 218 7 232 118 -185 -136 410 -209 3 156 -469 -86 -428 349 -379 134 -23 19 189 -588 -252 0 7 1 506 466 -7 7 78 -581 -34 5 7 311 24 648 -6 481 -4 387 -215 178 -1031 231 -222 -85 3 115 286 38 -567 4 562 3 -247 -434 0 233 40 -200 -206 1 26 513 38 209 -1 1 0 -428 254 -186 -233 -215 69 201 -6 -419 -275 312 889 -3 -6 3 -652 285 6 5 59 117 -377 2 -590 -44 -69 -297 49 -437 1 -77 -122 -180 -633 -369 280 -210 548 -237 -308 -35 179 -4 1 4 -34 -65 -6 -5 70 -370 322 -6 309 -63 219 -260 166 -2 -7 -43 216 -66 589 291 109 -152 94 62 29 305 188 -3 -7 -4 2 3 -2 7 -1 3 0 -2 0 -5 0 6 6 2 0 -5 0 2 6 0 6 1 -3 5 -2 3 -2 4 -3 2 6 -1 -3 5 -5 5 0 4 -2 7 5 -5 7 3 1 -3 6 -4 -5 -2 2 7 3 -3 -2 3 7 -3 0 -67 -2 -7 -2 1 -2 3 -5 0 5 6 6 5 6 3 -1 10 -65 317 -31 -38 28 235 4 263 -35 -169 -119 -7 2 -6 363 23 -97 394 49 193 -219 -200 -23 -127 -81 -337 548 850 5 -23 264 41 295 -185 136 -609 273 -446 -519 494 262 183 -25 -6 38 102 -56 -347 -583 -34 93 13 103 41 -206 166 -4 -434 -6 179 396 263 57 486 -92 599 -1 340 -122 -6 -73 362 134 -6 -29 498 -79 -363 168 -34 -180 -339 458 -191 -278 -249 5 -1 0 38 -37 3 -307 666 -316 1043 2 -5 353 373 -379 0 -232 3 -150 2 193 249 189 13 -338 -725 228 486 394 -324 66 -7 -3 -292 250 -508 -408 189 -4 -62 630 250 137 43 -430 -87 -622 -2 -246 -121 -292 134 -10 170 -30 -19 -137 98 86 127 4 4 -3 -286 356 -85 410 -164 28 -27 56 -62 278 58 -106 531 -1 0 551 -318 -310 -273 218 244 -422 127 187 101 -19 279 6 2 0 5 3 1 -2 -5 -6 6 5 -6 4 5 1 -2 1 -4 -7 0 0 0 -5 6 6 3 -5 -1 6 -2 -7 -1 1 -4 6 2 -5 -5 -2 0 0 0 1 3 2 3 -6 -5 -3 -4 -2 -7 1 -3 6 2 0 1 2 -4 -7 4 7 -1 4 -426 -6 -857 777 37 4 -6 -318 -242 -7 -7 3 -5 2 -6 -2 4 -3 3 359 5 -5 -7 -5 -3 2 -7 -110 -5 7 -2 1 5 4 2 3 3 -5 6 -3
