 3920 19744 23152 26816 26368 0 6200 11560 52104 57080 17704 19304 14392 15928 19032 17080 22248 15944 22440 21624 0 0 -5 5 7 -2 -3 258 -929 -378 -188 -194 491 182 113 -249 -273 -511 -406 549 328 434 -433 -555 -535 629 215 -388 -670 -412 -693 -980 733 442 21 89 167 -373 94 -103 -104 -44 -518 391 118 33 3 -905 -751 -139 408 -317 -354 -327 38 7 -179 -953 -462 -173 245 -292 -331 7 498 110 -259 -495 136 301 727 -124 -330 -344 -342 325 199 396 319 550 542 -82 57 -348 -235 203 -196 484 -536 -151 -175 10 -369 79 -203 241 -19 130 184 -116 -133 -54 -308 389 -386 -415 -387 145 284 324 76 -200 -222 -66 -333 36 34 -326 -275 63 238 145 -774 -133 451 100 -556 2 3 -31 243 411 300 -234 -469 -25 -18 124 -497 -570 -146 -223 90 -100 -296 -415 -55 -63 -91 -148 -21 689 -7 6 257 -124 4 -7 -5 -1 -4 57 1 -1 -1 1 -3 -5 -2 7 1 -4 1 1 7 -3 4 7 909 -357 -155 -627 -3 -6 225 -142 1 3 4 3 1 7 6 -5 -5 -3 5 -6 -1 3 -6 -7 -643 301 -250 100 -306 401 532 110 -199 292 143 -812 -279 -84 -6 -312 913 286 -357 1 235 329 5 1 -1 158 -82 59 54 -433 -167 -484 -88 139 -229 -130 -891 53 396 90 281 -68 -228 -267 -220 142 142 242 263 -6 -5 -1 37 3 205 3 -5 340 454 -561 -5 1 497 -673 -177 -1057 -343 -7 -538 165 -5 270 236 -150 -23 174 -137 226 9 3 -833 -345 -7 -20 -571 206 105 317 -138 315 -18 -54 295 -127 -359 4 3 -1 513 -778 -1 2 -4 262 -354 -5 6 -232 -172 -291 33 271 -3 -268 -346 60 317 520 173 15 -214 -139 61 506 -43 -392 -154 -1 -399 -228 -150 -467 -161 -489 -84 169 478 -23 334 -397 310 142 1 172 264 -12 -63 41 270 -121 -153 -19 19 -188 -187 100 -124 7 -89 20 244 -125 -38 -47 -134 26 -345 -78 -162 -45 -3 0 1 -282 -431 6 2 225 -411 145 4 -5 -390 920 -378 -313 -122 2 -365 -344 101 14 -167 -61 557 -226 116 -109 -294 5 -287 -420 4 11 360 6 -78 -284 -217 -63 -104 -232 -121 383 387 38 -397 1 -283 -166 104 225 78 277 -152 -61 76 -136 -446 513 -43 -571 -3 350 146 -119 -430 -5 -411 362 436 -353 6 184 470 -61 -671 3 319 -115 -13 393 37 2 119 216 271 -307 -795 -172 -82 -55 -7 132 157 17 -141 -120 -297 118 38 78 -252 276 -143 -2 -3 97 53 -42 5 -1 -502 360 -83 -3 2 -167 -403 187 138 -297 4 -351 -140 85 161 298 4 92 -171 385 183 -182 214 -299 -247 -1 -505 -115 -152 -93 94 67 319 66 -228 89 -559 55 -28 220 -2 -251 -374 95 147 -74 86 265 -106 -30 65 -22 308 -145 -60 1 -68 -662 -54 -54 17 75 -61 49 153 130 -130 -120 429 241 -3 42 210 100 -98 397 154 22 -440 -191 -26 47 -5 119 57 -2 490 -225 4 202 417 -44 -465 -266 -18 82 -61 78 282 -302 0 137 -110 -217 109 119 -33 -408 -196 -118 235 568 29 186 227 -6 141 -130 182 -84 -199 -327 -67 -198 -19 -41 -53 -198 2 1 71 42 226 5 6 -249 -120 67 3 -6 -461 77 -24 2 634 3 179 329 -131 -334 -243 -187 -277 -168 -133 -321 -650 -257 152 -708 0 120 -2 -169 43 -107 146 235 -202 -217 -255 -200 -74 -45 -13 2 -117 472 -270 38 146 -231 -84 122 117 -174 -142 -155 -275 -596 6 87 280 -194 -393 100 -555 759 30 -86 311 -414 519 -81 74 -1 -203 156 -58 633 117 -232 -383 683 303 -125 -158 -461 73 839 7 232 294 -28 -382 -43 -469 167 -609 59 -23 6 -638 475 -14 -4 -99 238 -163 163 34 -390 -533 -431 -195 11 -437 -406 10 -332 7 -217 44 136 18 40 -175 66 162 9 -456 -87 19 90 -11 -7 -278 -263 53 271 189 -130 -301 -316 41 290 -116 -307 145 -479 7 10 -292 -52 -395 -81 -90 -447 -230 -244 25 283 199 3 -5 4 6 6 6 -5 -7 4 1 2 2 6 1 7 -5 5 0 5 -5 -5 7 7 -6 5 4 6 -2 -3 -4 -1 -3 -2 2 -2 4 3 -6 -6 -6 2 5 -6 -2 6 -3 2 2 -2 -80 -3 6 -1 354 61 -2 -5 -2 -332 441 -3 -3 -6 -4 150 2 -2 5 -412 -215 -6 -4 -398 -574 -164 -1 3 2 2 4 -1 -7 707 -6 316 1 -1 7 -663 -4 3 -5 -6 0 -6 -2 -2 401 1 4 -5 -4 -82 119 106 6 -2 -7 -2 -247 -4 2 868 7 1 -3 -1 -7 -4 409 -5 5 1 -2 -354 0 5 2 2 -1 -7 7 585 7 232 -2 -6 1 -3 530 4 1 -45 530 -474 -4 0 0 310 0 -1 -5 -7 2 2 2 -6 -1 -107 234 2 4 116 -164 -182 2 3 6 -5 -75 4 5 2 501 26 -4 -7 3 2 7 -3 3 -2 -6 6 6 5 -25 -446 -3 4 5 742 290 312 0 -3 26 2 -4 5 -7 -2 5 5 1 -5 1 -2 -3 1 -7 5 -1 -4 -6 -6 2 -5 260 5 5 2 0 31 0 2 0 2 -5 -6 7 -2 1109 2 -1 6 -1 -554 0 -6 -5 1 0 3 -2 -3 2 7 -5 -3 -3 -5 6 -7 1 -7 -3 4 710 -6 1 -2 -4 822 7 6 5 6 -4 5 7 7 -4 -1 0 1 -4 1 273 0 -3 -3 5 -7 -1 1 -1 -1 2 -3 -3 159 -1 5 -2 7 1 -503 -2 -4 -3 7 -3 7 -2 0 -3 7 6 3 5 -6 0 3 -7 -5 -7 -7 -5 1 3 -7 -709 7 4 0 -4 0 -2 -3 1 -3 -2 7 -6 2 -7 -3 -185 -2 4 -2 -7 2 -2 1 -1 -5 125 -1 0 3 -452 -777 -6 -3 -3 7 -305 -3 5 1 -1 -330 -4 6 -1 -276 -84 6 -3 3 2 4 -1 2 -7 -1 6 -3 1 781 1 2 1 -4 54 332 -3 -2 1 -4 5 -1 1 6 -7 3 7 7 0 0 -1 3 2 -6 1 4 7 -6 4 -3 -1 7 7 -2 6 7 -2 -4 1 -21 4 -3 7 3 3 3 -1 1 1 1 4 1 -3 -1 5 13 325 -5 -147 -409 -92 122 5 -2 -41 139 -360 -294 -1 6 -274 519 297 119 -55 299 91 2 389 -209 33 -602 -1 657 -2 258 -26 -322 -753 378 -110 234 7 232 118 -233 -152 394 -273 3 124 -405 -54 -444 349 -395 150 -39 35 157 -636 -236 0 7 1 490 466 -7 7 142 -613 -2 5 7 359 -24 728 -6 481 -4 371 -247 226 -1095 231 -238 -69 3 115 286 22 -567 4 466 3 -215 -562 0 153 88 -168 -254 1 138 609 -58 241 -1 1 0 -428 254 -186 -217 -215 37 265 -6 -403 -275 328 905 -3 -6 3 -572 253 6 5 59 149 -425 2 -574 -12 -53 -281 81 -453 1 -61 -170 -196 -585 -369 296 -258 500 -269 -356 -51 179 -4 1 4 -2 -65 -6 -5 70 -418 242 -6 309 -95 187 -276 166 14 -7 -75 296 -98 557 291 93 -152 78 46 29 321 188 -3 -7 -4 2 3 -2 7 -1 3 0 -2 0 -5 0 6 6 2 0 -5 0 2 6 0 6 1 -3 5 -2 3 -2 4 -3 2 6 -1 -3 5 -5 5 0 4 -2 7 5 -5 7 3 1 -3 6 -4 -5 -2 2 7 3 -3 -2 3 7 -3 0 -99 -2 -7 -2 1 -2 3 -5 0 5 6 6 5 6 3 -1 -38 -81 285 -47 -54 28 235 4 279 45 -169 -135 -7 2 -6 347 -9 -97 346 1 193 -235 -184 -55 -111 -129 -321 532 850 5 -23 280 41 311 -201 120 -721 305 -430 -551 462 262 183 -57 -6 22 134 -104 -347 -583 -66 93 61 71 25 -206 182 -4 -514 -6 195 412 279 185 470 -108 615 -1 308 -58 -102 -73 346 134 -6 -157 498 -79 -363 152 -18 -180 -339 394 -207 -262 -265 5 -1 0 38 27 3 -291 682 -316 1091 2 -5 353 357 -427 0 -232 3 -134 2 225 233 189 13 -370 -741 292 486 378 -308 178 -7 -3 -292 298 -492 -568 157 -36 -78 614 234 121 43 -414 -103 -638 -2 -246 -105 -324 86 -74 170 -62 13 -105 50 70 95 4 4 -3 -366 308 -85 442 -164 12 -43 40 -78 262 42 -106 547 -1 0 567 -382 -358 -289 170 244 -422 111 171 69 -51 263 6 2 0 5 3 1 -2 -5 -6 6 5 -6 4 5 1 -2 1 -4 -7 0 0 0 -5 6 6 3 -5 -1 6 -2 -7 -1 1 -4 6 2 -5 -5 -2 0 0 0 1 3 2 3 -6 -5 -3 -4 -2 -7 1 -3 6 2 0 1 2 -4 -7 4 7 -1 4 -650 -6 -665 841 -11 4 -6 -334 -82 -7 -7 3 -5 2 -6 -2 4 -3 3 343 5 -5 -7 -5 -3 2 -7 -222 -5 7 -2 1 5 4 2 3 3 -5 6 -3
